{
    "w": [
        [
            [
                0.14171247063361564,
                3.1296076728059643,
                -0.014124143111620259,
                -0.013464740485260633,
                -0.007687790433885597,
                -0.021962380323720682,
                -1.3939981156614776,
                0.04113010467799169,
                0.4580659926549023,
                0.3453869735206648,
                0.8709509401873454,
                -0.014060499972061938,
                -0.019721900740498302,
                1.0968549122855284,
                1.0261995532379635,
                -0.01830112833744991
            ],
            [
                1.1908279629509773,
                -3.9891183972416284,
                1.2904530607193438,
                1.2904964959316128,
                -0.05989546677236239,
                1.3991331029695973,
                -0.19275455847802883,
                1.3127383961272465,
                1.0679517260646034,
                -1.0818154378470926,
                0.695033391933413,
                1.274950651953486,
                0.808153575234467,
                0.2514535273628928,
                0.7778949472135818,
                0.8192860652698448
            ]
        ],
        [
            [
                5.748311957429672,
                6.337130874203955,
                6.038073549262582,
                5.011898948739559,
                -14.404283408365592,
                5.4832099135998975,
                -6.02423143694189,
                5.881289466572266,
                5.807677179543108,
                5.483105375092028,
                2.1466390106553175,
                5.363897922768958,
                5.643047646434888,
                -4.508416805132573,
                -7.980878822652779,
                -2.9880081024385152
            ],
            [
                -1.0969579567161367,
                -1.3391514139617844,
                -1.0554997120993355,
                -1.1999021506622725,
                2.4358827921925603,
                -1.2450291307620802,
                1.1925669560573744,
                -1.2194863861475354,
                -1.1471069030942376,
                -1.1745526899222827,
                -0.755982686347187,
                -1.224714222012061,
                -1.0937385714129395,
                0.7117609367277292,
                1.3727835382402214,
                -0.037678474606704225
            ],
            [
                6.8406242774110675,
                8.000226871242699,
                6.712836323452601,
                6.907738861972671,
                -18.722318553569735,
                7.022052794704009,
                -7.421459675367953,
                7.093509548937096,
                6.898567201478198,
                7.087937159447735,
                3.983276095025751,
                7.218500028150631,
                6.249190913477693,
                -5.659933643459914,
                -6.468203431114594,
                -2.8120079867884837
            ],
            [
                6.844907388332784,
                8.053998622161567,
                6.646851828735149,
                7.096469049416453,
                -18.765145798414157,
                7.145911677035571,
                -7.407265112173101,
                7.137917672913523,
                6.949847124552015,
                7.099053146211351,
                3.9833135932260135,
                7.421171956007535,
                6.240960830430756,
                -5.828685502160031,
                -6.596399518703512,
                -3.027038949655117
            ],
            [
                -0.028507316969735037,
                0.017548065091188635,
                0.034487944089992964,
                -0.11145602885831347,
                0.012779488403781208,
                -0.10148821447345173,
                -0.021166299128036078,
                -0.015263677273385949,
                0.006207643757808515,
                -0.007207891550312504,
                -0.09012186850473358,
                -0.09306379545728839,
                -0.053311407277176405,
                -0.046116033216948134,
                -0.021245571140405598,
                -0.0424528324593376
            ],
            [
                9.77315808485606,
                10.769644137995051,
                9.887089259997035,
                8.030615449973556,
                -27.303473350350806,
                8.737317295094119,
                -7.91318099840282,
                9.63689758367019,
                9.333672645425638,
                8.873113551498454,
                3.417513324660118,
                8.677583333496653,
                9.219264819222909,
                -5.880262677449812,
                -8.907466491185996,
                -2.947406950408719
            ],
            [
                11.017884219701687,
                -8.104681157549399,
                11.30628291602879,
                10.094199260999943,
                18.097857122157603,
                12.234091990570835,
                29.61921995407705,
                13.380337760806452,
                12.843290778889283,
                13.109829485895538,
                3.3891193899705563,
                12.267103036624714,
                8.619094814124734,
                22.884092888596044,
                32.85332929801871,
                15.391671676182638
            ],
            [
                6.931142234135622,
                7.533121084449008,
                7.16878034894901,
                5.478342776126009,
                -17.358237031850287,
                6.104101825879272,
                -6.675646889909951,
                6.825027726189136,
                6.623631144956898,
                6.229401689470546,
                2.0678998496259915,
                5.9048152553819495,
                6.59638927526163,
                -4.884373098868679,
                -8.991033170284611,
                -3.087980970530679
            ],
            [
                6.137347539836335,
                3.389151947052335,
                6.7532232464474635,
                5.664701703281308,
                -0.47077969831344474,
                5.833949057054469,
                1.5916213736859186,
                6.015693741792717,
                5.7881741263256155,
                5.71319802699344,
                2.152418297802446,
                5.866570713009818,
                6.430669357663857,
                1.1739816222773487,
                1.9762637800566687,
                0.7451020859276646
            ],
            [
                -0.9829970771891356,
                -1.1059898077116028,
                -0.9443028777283011,
                -1.1239901936540542,
                2.3505163019741144,
                -1.1260622912699692,
                1.2363075139113073,
                -1.0746853028711039,
                -1.0055466721224313,
                -1.0434429329979213,
                -0.8838128696738083,
                -1.105086417725938,
                -1.0011947435537973,
                0.7323387490952037,
                1.4257446729524113,
                0.017781296415338488
            ],
            [
                2.769753970923745,
                17.570451835341974,
                3.3163044803196864,
                5.82061770655428,
                7.186306003762735,
                3.668757124652355,
                16.09282248109457,
                0.5963045769799399,
                0.9979462386109795,
                1.6226373024434777,
                3.2286196649549295,
                3.764351860080167,
                6.449677365285038,
                14.696663837158802,
                17.165592959292965,
                9.180077602884298
            ],
            [
                6.232928351474678,
                7.468412016567018,
                5.846646931272865,
                6.707392981472611,
                -16.780305621799375,
                6.647266595084161,
                -7.050685544940788,
                6.58420622502711,
                6.308179039528144,
                6.523261508753893,
                3.890389082574732,
                6.994794715603841,
                5.447946360805901,
                -5.764021152426372,
                -6.429360558436222,
                -3.087046244197952
            ],
            [
                3.3636393386160135,
                4.133856015418871,
                3.4546270540658504,
                3.9611390532808426,
                -9.341728938596223,
                4.026172235695455,
                -4.2500745239678945,
                3.9500177058024155,
                3.8127233786837276,
                3.8714484693055264,
                3.096551095137751,
                4.146258017683041,
                3.4980327238868516,
                -3.1888549862153486,
                -5.467967294777963,
                -2.7236357063247296
            ],
            [
                2.4211147605256036,
                2.9790384162948,
                2.506568765024433,
                2.995971089429144,
                -6.302087410261036,
                2.908357217625524,
                -4.042444048953379,
                2.9050577652340004,
                2.714582483811383,
                2.8652021575427953,
                2.382709684259047,
                3.032606153755533,
                2.6259090899558353,
                -3.6435849699633702,
                -4.448290518407661,
                -3.7070563545340613
            ],
            [
                3.6032319344250223,
                21.870275801922595,
                4.864103471350741,
                8.217973087802475,
                8.325543796506036,
                3.492079565667528,
                20.34345413605017,
                1.012071951912504,
                0.8995401431578921,
                1.9153039636704037,
                7.2191901834308165,
                3.0451424159117746,
                8.182576744137668,
                17.610221009011624,
                22.572605795647707,
                10.141502895892195
            ],
            [
                3.3268098848576515,
                3.9441672498013407,
                3.3256323991007553,
                3.913942183275096,
                -8.467274304584887,
                3.9211100675488577,
                -4.671102982126212,
                3.7860072494746446,
                3.5488955906443587,
                3.7568671136250607,
                3.013503318259971,
                4.084949695196265,
                3.4059377100794435,
                -3.6642816846048065,
                -5.749194597856067,
                -3.393328180042894
            ]
        ],
        [
            [
                -2.3920293763092904
            ],
            [
                -9.085686979252763
            ],
            [
                -10.663872874787243
            ],
            [
                -1.3761785310449737
            ],
            [
                -15.840717489203604
            ],
            [
                -3.289822736116243
            ],
            [
                -24.313422611652207
            ],
            [
                -7.5376838227803615
            ],
            [
                -7.273876044540359
            ],
            [
                -4.3206370294259155
            ],
            [
                -7.978993760324388
            ],
            [
                -3.152812872825563
            ],
            [
                -1.8884782052339886
            ],
            [
                -16.291064310689737
            ],
            [
                -27.753339921184775
            ],
            [
                -17.477491426643503
            ]
        ]
    ],
    "b": [
        [
            [
                1.4778648317664704,
                2.91956037366763,
                1.2806468412246816,
                1.2799237676735105,
                -0.06640710615428479,
                1.3957443965178502,
                0.6065818056503444,
                1.464650577806511,
                0.7140019879672357,
                0.022938989331492805,
                -0.4167116857533968,
                1.2660709343515966,
                0.7762712774482681,
                2.1441626776424094,
                -0.49691533781599695,
                0.7685685676571529
            ]
        ],
        [
            [
                -0.7025166687141339,
                -0.031186189613817555,
                -1.4813450528859675,
                -0.4384387256836844,
                2.6898349338082395,
                -0.597289907757967,
                2.479193588477275,
                -0.8452594997837061,
                -0.9602699082700606,
                -0.8311351353926526,
                -0.7233748144591836,
                -0.6480857816027853,
                -1.065012609363409,
                1.9546437395159237,
                2.901848156567987,
                1.0041381248907983
            ]
        ],
        [
            [
                7.490598795479614
            ]
        ]
    ]
}